34 128
34 -0.07314962 -0.08560994 0.23585464 -0.1278631 -0.07489152 0.013056722 0.046657395 0.007866348 0.24978325 0.09847883 -0.08844027 0.044250913 0.07745197 -0.0681062 0.00032815457 -0.13283616 0.09590912 -0.12086366 -0.035800602 -0.02173109 -0.09312433 0.10537466 -0.028671874 -0.13864236 -0.22501801 -0.002541863 0.053455364 -0.13308366 0.0017698875 0.02154904 -0.008026765 -0.33614066 0.028104195 -0.00026735294 0.027771493 0.018349344 -0.15939511 -0.058383167 0.006522511 -0.04373493 -0.13720345 -0.13679114 -0.110127196 0.011920016 -0.0976974 0.01708293 -0.10628099 -0.037494026 0.043490216 -0.15792702 0.09476089 0.14090528 0.10102777 0.062286735 -0.0690534 -0.052716166 0.017702924 -0.09325515 -0.20775321 -0.104406394 0.07024327 0.0927981 0.08187902 -0.07150962 -0.11410111 -0.11461211 0.12834841 -0.024532072 0.036014087 0.0058049653 -0.108970545 -0.0026484847 0.20472752 0.19595127 -0.015343963 0.029063653 -0.027431307 -0.027731275 -0.024744552 -0.055275213 -0.194136 0.08730931 -0.07684064 0.065793395 0.11473861 0.09104146 -0.047289494 -0.02028133 0.00074082403 -0.08462445 -0.22300792 -0.033907484 0.04217792 -0.0837348 -0.11805258 -0.008231269 0.108280025 0.011774411 0.0857988 -0.007195672 0.05182408 0.09826899 -0.100177154 0.101855494 -0.10948813 0.123418376 0.047636397 -0.13035233 0.03323709 0.24839033 0.13463823 0.070144564 0.10440235 0.007854903 0.31148258 -0.18646368 -0.051896367 0.10910841 0.09224271 0.047937497 -0.023982408 -0.099775955 0.050029192 -0.05314477 0.011122657 0.11016131 0.30106506 -0.03571139
1 0.0029794932 -0.029129384 0.21768393 -0.2870124 -0.18558598 -0.096098095 0.2482206 0.057709545 0.17214398 0.104967676 0.08250818 -0.016238643 0.17011422 0.013072966 -0.009167887 -0.0207419 0.009759233 -0.030048288 -0.1200405 -0.012385706 -0.15534952 -0.050258134 0.023524962 -0.14234251 -0.23523673 0.08864077 -0.055405673 -0.13272697 0.11417485 0.101263024 -0.026666444 -0.15876321 -0.06578344 0.016164888 -0.05792925 -0.116143666 0.0017925508 -0.036258 0.022179177 -0.0045364853 -0.16309272 -0.09490324 0.013805607 -0.01072374 -0.2786297 0.021539584 -0.13124293 -0.09820639 0.03509144 -0.055804387 -0.07619556 0.19109531 0.04759998 0.104750164 -0.10291587 0.07201104 0.068555616 -0.047067847 -0.15626657 -0.062190756 0.13114712 0.017307201 0.10338046 0.009758747 -0.07043518 -0.21055539 0.22434792 -0.09367815 0.07255848 0.06147919 -0.10213879 1.2906337e-05 0.11870455 0.055795625 0.0022274235 0.11474214 -0.103911355 -0.09243149 0.046399716 0.08516287 -0.30686495 0.051545788 -0.10256532 -0.15760978 0.13715263 0.18988644 -0.084965296 -0.031711962 0.020324461 -0.06294248 -0.27300918 -0.003831921 -0.07578204 -0.10471801 -0.18665959 -0.10135325 0.20423497 -0.045537088 0.041749876 -0.1519781 0.012019058 0.075366616 -0.0970396 0.17068155 -0.06146387 0.100039855 0.040335853 -0.11575075 0.016703034 0.15783907 0.1338658 0.060375936 0.17731722 -0.1325737 0.24757138 -0.14760491 0.0024652653 0.06602038 0.12673204 0.03647272 0.021407794 -0.11553085 0.08830946 -0.17886215 -0.020986645 0.16568683 0.29014027 0.032137286
33 -0.059204146 -0.07583841 0.23087384 -0.15991971 -0.10216983 -0.0112479655 0.0893604 0.020237623 0.24079065 0.10157037 -0.058514927 0.026111389 0.094238475 -0.053200398 0.001957526 -0.11272739 0.07794802 -0.10721792 -0.050523788 -0.020333434 -0.10583951 0.08076201 -0.015905166 -0.13944152 -0.24045995 0.014895397 0.032345336 -0.14456883 0.02606793 0.04235836 -0.0145948585 -0.31494984 0.014019096 0.004127128 0.017865563 -0.01180942 -0.13432601 -0.06140058 0.0062568667 -0.03728369 -0.14660966 -0.12827912 -0.087002814 0.0043625426 -0.14263275 0.017939268 -0.11208973 -0.05000024 0.043311454 -0.13953601 0.06582868 0.15797481 0.08818215 0.07544322 -0.080224775 -0.025458915 0.02266379 -0.088662885 -0.20384908 -0.1032704 0.08625815 0.08129961 0.089729026 -0.06007557 -0.11167021 -0.13550289 0.15094146 -0.039365504 0.045393035 0.01712293 -0.11144918 0.00072844105 0.18749256 0.17141828 -0.015540998 0.04975317 -0.044865035 -0.040932868 -0.010807725 -0.027648494 -0.21854432 0.08532881 -0.08018893 0.023659559 0.11992804 0.11337994 -0.059940744 -0.019837448 1.119895e-05 -0.08108316 -0.23839812 -0.034232877 0.020252576 -0.09088846 -0.13428551 -0.02494182 0.124302216 0.0036137886 0.08107568 -0.039619 0.045509055 0.084487766 -0.09905106 0.11486999 -0.101406336 0.11404895 0.0483265 -0.1231163 0.032814242 0.22993748 0.13507023 0.070166536 0.12106403 -0.019405417 0.30071658 -0.17982453 -0.04287743 0.09998204 0.095255814 0.050999943 -0.015578729 -0.10486531 0.06426732 -0.079965465 0.0070409304 0.12500432 0.29810828 -0.02006807
3 -0.025303444 -0.048859097 0.20854501 -0.21936081 -0.14075524 -0.052393816 0.1645617 0.039748378 0.18081935 0.100685485 0.017502 -0.0011738979 0.12736621 -0.014515536 -0.008582548 -0.055197094 0.03957726 -0.05899525 -0.08148964 -0.012204249 -0.120551854 0.008972563 0.0064061303 -0.12633602 -0.21715015 0.050012093 -0.006693737 -0.12892406 0.07072654 0.06642564 -0.021115215 -0.20870845 -0.025241408 0.011445483 -0.017706359 -0.064936176 -0.05700989 -0.04339841 0.020918295 -0.022349128 -0.14566685 -0.10108325 -0.030594794 0.0035942474 -0.19356099 0.009688455 -0.117313355 -0.07554403 0.031307504 -0.084965885 -0.014638043 0.15585595 0.06323225 0.08621204 -0.085577756 0.029046664 0.04027788 -0.053452026 -0.1569884 -0.0698179 0.109631695 0.045675714 0.083204895 -0.022648193 -0.074014194 -0.16354775 0.17903753 -0.06459777 0.049923215 0.03709437 -0.09776464 0.0019241705 0.13708833 0.095383324 -0.0074259373 0.07919764 -0.07318485 -0.06665809 0.020356225 0.034575135 -0.24286391 0.05984189 -0.088661045 -0.06849935 0.11917875 0.13541447 -0.07144557 -0.028260602 0.009463972 -0.06388713 -0.23305827 -0.013475968 -0.027747653 -0.08314155 -0.14390817 -0.06344914 0.1501702 -0.01609593 0.05410471 -0.09404815 0.025970887 0.06798537 -0.08905617 0.13042402 -0.07028484 0.09480339 0.03546452 -0.108744666 0.019217007 0.17135812 0.120710514 0.051980846 0.14016323 -0.073918864 0.24372946 -0.14742383 -0.017047353 0.07037135 0.10086058 0.038303982 0.0077392915 -0.09191775 0.06841658 -0.116436005 -0.005982035 0.1297713 0.2632787 0.003990212
2 -0.043674685 -0.057474326 0.21361977 -0.195961 -0.11549001 -0.024491895 0.13361938 0.025720652 0.1949241 0.09558937 -0.0021449118 0.018518478 0.121673994 -0.018296821 -0.013897813 -0.064681984 0.04904069 -0.072226375 -0.0670697 -0.022296047 -0.11958683 0.020222394 -0.003860241 -0.122338444 -0.21922712 0.04448943 0.0063722166 -0.12529911 0.055243015 0.067318626 -0.019555373 -0.22498958 -0.016924012 0.0032540495 -0.004880747 -0.050667368 -0.07867109 -0.03525264 0.01707691 -0.024023782 -0.13768597 -0.11577951 -0.046352018 0.00032547596 -0.17929523 0.018510168 -0.11193752 -0.07029258 0.041582905 -0.100701384 0.010149285 0.15832463 0.07439306 0.08549542 -0.078116566 0.010783869 0.043487757 -0.06597079 -0.17423292 -0.078375064 0.10655998 0.06062435 0.08842557 -0.022858605 -0.0970896 -0.15904309 0.16984554 -0.057189424 0.046614174 0.035107933 -0.103705615 0.007714099 0.15680817 0.12541336 -0.014791808 0.06830753 -0.06330319 -0.055708323 0.011871316 0.0037274752 -0.23505385 0.066144176 -0.09286537 -0.04298681 0.11308414 0.13403463 -0.06410237 -0.030919366 0.021380628 -0.06612835 -0.23538014 -0.015013208 -0.009330645 -0.091007665 -0.14591825 -0.05958289 0.14527497 -0.01967178 0.06335609 -0.06901545 0.035494372 0.07734433 -0.09496509 0.11440234 -0.08755037 0.10217661 0.041948337 -0.115489185 0.02616116 0.20000525 0.12540634 0.053644303 0.13649909 -0.057469346 0.27701244 -0.16025555 -0.026021449 0.07541211 0.110014915 0.05141765 -0.009744621 -0.09872494 0.061860062 -0.107202746 -0.006371795 0.12980357 0.28226465 -0.005336019
4 -0.017217001 -0.041227136 0.21788459 -0.25682998 -0.16568178 -0.069292985 0.20858274 0.048486024 0.19179419 0.10564634 0.048668716 -0.0010252758 0.15333469 -0.004729516 -0.014538469 -0.039651677 0.02713731 -0.04621577 -0.10512072 -0.0112501625 -0.146533 -0.018418957 0.012170529 -0.14080602 -0.24076031 0.074287 -0.031394094 -0.1343339 0.08683294 0.097433105 -0.023679683 -0.19890352 -0.048630927 0.01153656 -0.036255505 -0.09458994 -0.03031062 -0.044094853 0.023757104 -0.012702531 -0.15462372 -0.10589119 -0.0105888415 -0.006569177 -0.2392179 0.020129064 -0.13207422 -0.090459116 0.035403006 -0.074542195 -0.04670953 0.18476188 0.052968103 0.09494575 -0.091423005 0.051135387 0.050704 -0.056850895 -0.16883375 -0.06750283 0.12717041 0.03743434 0.09253597 -0.001560374 -0.07644808 -0.18693447 0.20971166 -0.08823086 0.06061133 0.05005057 -0.09861898 0.0022748813 0.13818286 0.077771746 -0.001789739 0.09394076 -0.08954267 -0.08399553 0.03699873 0.052230753 -0.29105982 0.060766306 -0.09977822 -0.1155075 0.13190985 0.17578664 -0.082817994 -0.037295315 0.016028108 -0.0699912 -0.2671924 -0.013236054 -0.04622697 -0.093422584 -0.17655228 -0.08670459 0.17899883 -0.03587048 0.04715631 -0.119597785 0.026331872 0.07573125 -0.08892694 0.15022598 -0.07205358 0.106475234 0.03907306 -0.11886891 0.017059064 0.17608482 0.13581547 0.053370483 0.16656789 -0.10550785 0.25801772 -0.15428221 -0.01566709 0.066733606 0.12409014 0.046080876 0.009439205 -0.10659854 0.08087963 -0.15363461 -0.012912258 0.14981985 0.28939745 0.024075016
32 -0.050291322 -0.06516984 0.23248355 -0.18590154 -0.11246828 -0.01902736 0.113564186 0.021914568 0.22874554 0.102772936 -0.03562145 0.016781427 0.106195875 -0.041073978 -0.0027314196 -0.095593624 0.06695737 -0.09677883 -0.06624586 -0.014698842 -0.119675405 0.055305533 -0.016483149 -0.14083695 -0.2369448 0.031042889 0.013517595 -0.14041132 0.039186772 0.05658821 -0.011389947 -0.28584704 -0.006078453 0.006754959 0.0031549574 -0.03441559 -0.105970055 -0.052553914 0.010747722 -0.036046296 -0.14511406 -0.12232159 -0.06253981 0.0036327639 -0.1567748 0.018214056 -0.11237368 -0.06281056 0.038815033 -0.122608036 0.030307196 0.16080655 0.081114605 0.07424216 -0.07992837 -0.008975292 0.03520144 -0.08073479 -0.19053106 -0.08788869 0.08917741 0.07238233 0.08638502 -0.04654281 -0.09719198 -0.141367 0.15607959 -0.046151362 0.046823494 0.029067665 -0.10314666 -4.1791907e-05 0.17262538 0.14263906 -0.0061969454 0.057826802 -0.051877216 -0.054986797 0.0012782431 -0.003755647 -0.23100169 0.07132502 -0.08028409 -0.011809622 0.119862996 0.122695886 -0.06077818 -0.024598973 0.006612843 -0.0722942 -0.23737398 -0.027392993 0.0010609664 -0.08762422 -0.14142671 -0.040804785 0.1378094 -0.0031044139 0.06935685 -0.05540216 0.03661819 0.08891835 -0.096635975 0.122309655 -0.08926189 0.1132645 0.042678826 -0.12401952 0.031080073 0.21278587 0.127643 0.059876468 0.13242626 -0.036682695 0.28491196 -0.17059927 -0.037866265 0.09080195 0.10676166 0.04606258 -0.010238144 -0.10736745 0.068244494 -0.09361964 -0.00031384945 0.1313897 0.28870595 -0.011687625
24 -0.06608436 -0.07897321 0.22635989 -0.15115929 -0.09274208 -0.0008143269 0.075996056 0.013840283 0.23905522 0.099503316 -0.06822456 0.02784245 0.08225706 -0.052545615 0.0030478616 -0.115210325 0.088845395 -0.11007371 -0.0422917 -0.022176776 -0.103634365 0.08919777 -0.01923146 -0.13401301 -0.22964507 0.0065504466 0.040311407 -0.13923307 0.022743938 0.031104377 -0.011446985 -0.31287384 0.019730883 0.005748791 0.018157318 -0.003964753 -0.14038077 -0.056619033 0.0065297317 -0.043065242 -0.14535852 -0.123272024 -0.08897167 0.009951737 -0.11964012 0.009014777 -0.1094589 -0.049353693 0.045904115 -0.13875888 0.071255654 0.13778621 0.08802 0.062158775 -0.0682465 -0.038136523 0.014947094 -0.085933656 -0.19151478 -0.097780496 0.08043561 0.08404105 0.07713715 -0.06346411 -0.10397409 -0.11389356 0.13073948 -0.032046296 0.036838546 0.010169905 -0.096091114 0.0014396965 0.18372388 0.16872129 -0.017504394 0.035832617 -0.033642557 -0.033837106 -0.02148879 -0.03697742 -0.20147288 0.080024056 -0.06847255 0.040993378 0.11437518 0.09239146 -0.052663095 -0.01724744 0.0022715828 -0.07733685 -0.21789242 -0.038751002 0.026350686 -0.07974452 -0.12795109 -0.017411081 0.110990636 0.0132681765 0.07679032 -0.027133668 0.042478327 0.08720771 -0.094522625 0.11217222 -0.096920155 0.11061017 0.044862613 -0.118560225 0.032487758 0.22476397 0.12547697 0.0648745 0.10378687 -0.0017130552 0.28956962 -0.17738436 -0.044534422 0.09916261 0.089511745 0.04877627 -0.020260103 -0.094268955 0.054453243 -0.062034346 0.008388633 0.11193065 0.28306577 -0.02513014
14 -0.036323704 -0.04844765 0.2132574 -0.20686412 -0.12387628 -0.043728944 0.15119042 0.03613023 0.19356085 0.092282265 0.010113932 0.01315417 0.124384046 -0.018041518 -0.007461085 -0.061534546 0.04869212 -0.0628005 -0.07411375 -0.013481096 -0.12506263 0.018213997 -0.004730248 -0.13163741 -0.22000074 0.048610877 -0.008247575 -0.12828076 0.06249374 0.06987167 -0.017456891 -0.22459333 -0.020391531 0.011458734 -0.016590595 -0.057279088 -0.06338745 -0.042734828 0.014095327 -0.018230123 -0.14032751 -0.10442398 -0.036570814 -0.003079347 -0.1851036 0.012753173 -0.11532816 -0.06838377 0.038529582 -0.090533555 0.0012532697 0.15403111 0.06410246 0.08127367 -0.079084694 0.019084923 0.04081535 -0.05916474 -0.16518937 -0.078888424 0.09789431 0.047353253 0.08740868 -0.02453975 -0.085615024 -0.1513475 0.16619968 -0.062711865 0.050523806 0.032398753 -0.09654843 0.00411402 0.14186642 0.10499942 -0.009741959 0.071070835 -0.06844029 -0.058328763 0.015161049 0.020212388 -0.23750097 0.059738778 -0.08037623 -0.05616106 0.11540977 0.13687506 -0.062264677 -0.029860515 0.0098334225 -0.06393975 -0.22776988 -0.018334458 -0.021916201 -0.0883691 -0.14825718 -0.058473848 0.14258772 -0.022589047 0.052377336 -0.07766945 0.033609495 0.07687046 -0.08536139 0.124505125 -0.07749843 0.10248 0.037685785 -0.11315475 0.020571599 0.17878 0.11829439 0.058788706 0.13534686 -0.06383834 0.24961679 -0.14929445 -0.017454064 0.07669154 0.10278996 0.041902643 -0.006599403 -0.09722369 0.06785018 -0.11040236 -0.009290196 0.12856808 0.2714372 0.0053063864
28 -0.05341304 -0.06618007 0.22903796 -0.17779475 -0.10830911 -0.017700085 0.11006697 0.01858851 0.22647315 0.098973215 -0.046434607 0.017470716 0.09897118 -0.04047263 -0.0006796952 -0.10435992 0.07078979 -0.09765426 -0.06553966 -0.019777795 -0.108353086 0.061247904 -0.017497467 -0.1398894 -0.22998905 0.025066799 0.021793352 -0.13920426 0.037368853 0.04600446 -0.018921742 -0.2878799 -0.00071035785 0.0017859003 0.007459726 -0.020346468 -0.11344349 -0.05916706 0.012848119 -0.030159306 -0.15108547 -0.12608822 -0.06915257 0.003021192 -0.15333992 0.016235856 -0.11593556 -0.057159036 0.042142324 -0.13092647 0.04720627 0.161268 0.08877246 0.07363771 -0.082143135 -0.01603601 0.033515435 -0.08135659 -0.18790919 -0.09417416 0.09240697 0.07202276 0.08438773 -0.051797062 -0.105604224 -0.14249307 0.15594175 -0.04250122 0.042769212 0.02054788 -0.10282867 0.00078105537 0.17551051 0.14878094 -0.012489525 0.056435734 -0.04642844 -0.045301393 -0.008260131 -0.014244429 -0.2250587 0.07252352 -0.08097356 0.005532751 0.12536076 0.11240105 -0.056649376 -0.020205695 -0.0018476795 -0.07243979 -0.23699398 -0.030408498 0.006392815 -0.09311879 -0.14438944 -0.03745837 0.12980743 0.0028379678 0.07648931 -0.050822087 0.03559763 0.087965 -0.09653252 0.12812407 -0.09976708 0.12004844 0.04639179 -0.12635341 0.033747498 0.22058438 0.12998626 0.069702946 0.1325299 -0.02780901 0.28993404 -0.17334351 -0.034280762 0.097887725 0.10312729 0.042131953 -0.009544717 -0.10408567 0.06509013 -0.09040597 0.000970185 0.13535288 0.30147445 -0.017959451
7 -0.008024555 -0.026375636 0.20493373 -0.25811905 -0.16990852 -0.08485536 0.22055532 0.05219215 0.17122117 0.10734034 0.055271413 -0.024007173 0.14927052 0.004150637 -0.0032721725 -0.032263387 0.013870535 -0.037421454 -0.11232816 -0.004445312 -0.14444008 -0.022182181 0.02024427 -0.13736401 -0.22249526 0.06983333 -0.038812768 -0.13631478 0.09762378 0.08655783 -0.020566909 -0.18145272 -0.05402503 0.011337806 -0.045032926 -0.10338442 -0.013397269 -0.05238526 0.018582974 -0.00831666 -0.16061792 -0.09253359 0.0051718093 -0.00868854 -0.24687316 0.015294246 -0.12605648 -0.088700525 0.028210236 -0.06341865 -0.059581358 0.17582352 0.050694797 0.09017058 -0.09698718 0.063707046 0.054129634 -0.048686717 -0.15837891 -0.062823795 0.11676465 0.025004188 0.09693101 -0.00997272 -0.069008335 -0.18760847 0.20706028 -0.087100245 0.06655101 0.050140217 -0.095726 -0.0078120297 0.11956093 0.06303802 0.0020604404 0.10716374 -0.09835219 -0.08604896 0.035117816 0.06907751 -0.28732175 0.056415897 -0.09534039 -0.13079596 0.1348438 0.17191896 -0.08383994 -0.028224332 0.011437967 -0.060287677 -0.25843364 -0.012389554 -0.06299604 -0.0980514 -0.17722228 -0.087524354 0.18456373 -0.029765444 0.04683003 -0.1328938 0.014234109 0.06723832 -0.091191895 0.16294515 -0.059895474 0.10190272 0.034212727 -0.11037635 0.017633565 0.15583554 0.12994903 0.05522297 0.16559367 -0.11239257 0.24502106 -0.1507562 -0.0016783447 0.064829454 0.11836626 0.030510701 0.021692865 -0.10869485 0.082821876 -0.16291648 -0.016803054 0.15731883 0.28125855 0.02511352
6 0.008544172 -0.015028647 0.19589953 -0.2795044 -0.18638602 -0.10010333 0.25372046 0.062029835 0.15142415 0.10548851 0.08789244 -0.036608107 0.15874445 0.019820776 -0.0018806048 -0.016553799 -0.0022471384 -0.024109188 -0.12672383 -0.0077395113 -0.15807495 -0.049764678 0.026042318 -0.13283154 -0.21709874 0.08256058 -0.059662435 -0.1294352 0.11732483 0.10163485 -0.019247767 -0.14633313 -0.07152014 0.014366729 -0.061026342 -0.1277337 0.013841957 -0.044253025 0.019522013 -0.004862288 -0.1619326 -0.077220276 0.030529968 -0.0096693365 -0.27247176 0.015373144 -0.12593317 -0.09957321 0.025399433 -0.04657078 -0.09043745 0.18152957 0.03522953 0.097752325 -0.10102058 0.08303431 0.06451482 -0.037475187 -0.14031896 -0.0540033 0.117088385 0.017383242 0.09540557 0.003902117 -0.050337978 -0.1996797 0.21276581 -0.09099761 0.07526444 0.06331331 -0.09110619 -0.0024999822 0.098465666 0.03363058 0.009330199 0.11231106 -0.10613988 -0.09886582 0.046787336 0.09594804 -0.29713506 0.049564194 -0.090783544 -0.17020822 0.13238709 0.18344373 -0.09068024 -0.03073353 0.014825052 -0.050340623 -0.2531438 -0.004074997 -0.078017294 -0.092166975 -0.17790252 -0.09629613 0.19437858 -0.042927254 0.039618067 -0.16093794 0.013242658 0.05927377 -0.08724149 0.1634776 -0.05175486 0.09362455 0.030151388 -0.095328756 0.017220475 0.12772186 0.119175605 0.056263007 0.16906479 -0.1370108 0.21233557 -0.13893184 0.007464372 0.05787091 0.12148001 0.024670104 0.02509748 -0.10453231 0.09297845 -0.18220222 -0.02649136 0.15616442 0.26590577 0.034922853
9 -0.045051362 -0.06820194 0.22819974 -0.20137544 -0.11818152 -0.035182483 0.13224271 0.027767055 0.2217442 0.105624326 -0.022042323 0.020057308 0.11997242 -0.03148626 -0.0024591945 -0.09479819 0.06506717 -0.08514944 -0.06959266 -0.022582412 -0.11845899 0.04749068 -0.00818422 -0.14369461 -0.23698741 0.03861374 0.01428582 -0.14063165 0.05132706 0.059679724 -0.0226242 -0.26943105 -0.0069674263 0.0033623404 0.00023040877 -0.041329183 -0.09435613 -0.052873667 0.020267513 -0.030329863 -0.1516944 -0.121691726 -0.06307016 0.0023025745 -0.16996624 0.018439958 -0.118556276 -0.0630648 0.041501425 -0.11250701 0.026615113 0.1632487 0.07963962 0.08463593 -0.08306206 -0.004373345 0.03802954 -0.072085135 -0.18913428 -0.08727151 0.10033234 0.061282128 0.08441092 -0.03384128 -0.09706935 -0.15565646 0.16425005 -0.05256417 0.045444924 0.02749924 -0.107335314 0.006853948 0.16290763 0.13268477 -0.007866784 0.061769024 -0.059612136 -0.05801228 -0.0013974644 -0.00019568193 -0.23816134 0.07582993 -0.08586367 -0.023751887 0.12350965 0.13210362 -0.0621415 -0.025954546 0.0063087107 -0.07124083 -0.23776561 -0.020509172 -0.004682481 -0.08912858 -0.14482959 -0.04414867 0.13851772 -0.008602965 0.068025954 -0.06554925 0.039089214 0.0775952 -0.09978742 0.11968806 -0.09145166 0.1124199 0.04661606 -0.120106876 0.030483736 0.20280983 0.13228805 0.06681866 0.1297582 -0.04351518 0.28220403 -0.16182789 -0.0282179 0.086272776 0.10759856 0.042247616 -0.010770885 -0.09967259 0.06928002 -0.09884557 -0.005543345 0.13218418 0.29641286 -0.0060945926
30 -0.06290623 -0.08544118 0.22996515 -0.1545875 -0.09923436 -0.009340027 0.083220795 0.018238224 0.24159053 0.105612814 -0.064585194 0.035560064 0.08757013 -0.05754456 0.0045854375 -0.12332684 0.0872231 -0.11172457 -0.04937527 -0.022541946 -0.09995107 0.08454552 -0.023616966 -0.14194994 -0.23349637 0.013276271 0.040473945 -0.14240931 0.0190401 0.03627626 -0.011640269 -0.31743377 0.017684938 -0.0007090692 0.014307464 -0.0032237316 -0.14053486 -0.06409219 0.007627745 -0.041062463 -0.1458272 -0.13492152 -0.093143195 0.014169567 -0.12428024 0.014283461 -0.11599653 -0.045092456 0.04350732 -0.14835207 0.07602089 0.1568958 0.0975661 0.06800063 -0.07860108 -0.038312286 0.02143445 -0.08641666 -0.19776805 -0.106207885 0.08614714 0.080664665 0.08408216 -0.06284393 -0.11358309 -0.13094442 0.14269635 -0.034616012 0.03659996 0.017091312 -0.10390571 0.006209457 0.18596916 0.17002584 -0.018750647 0.03755251 -0.036609687 -0.03138545 -0.017804373 -0.029756982 -0.20841826 0.08419482 -0.08295773 0.04118941 0.12555017 0.10232896 -0.05143329 -0.02423015 -0.0050105727 -0.07467815 -0.23094139 -0.0355986 0.02588672 -0.0864116 -0.13603295 -0.022356238 0.11580218 0.008750832 0.08013594 -0.027548008 0.043593552 0.09412285 -0.10854167 0.11973284 -0.107960895 0.120453574 0.048802275 -0.12913845 0.034163997 0.23868509 0.13566397 0.073165976 0.11496692 -0.006431676 0.30481738 -0.17831782 -0.03917198 0.100271784 0.09227936 0.042855155 -0.017482191 -0.10041895 0.057350546 -0.07032069 0.00767166 0.12215003 0.2981978 -0.022213435
8 -0.035901207 -0.056469556 0.21844202 -0.21287875 -0.12519544 -0.03777646 0.14665121 0.03458715 0.20657706 0.096205324 0.005880512 0.01078226 0.12779042 -0.018853553 -0.009361295 -0.06694105 0.05254535 -0.07279943 -0.07869261 -0.01462902 -0.12818882 0.023604058 -0.00787358 -0.1354393 -0.2284102 0.048736174 -0.001384082 -0.13087296 0.059971906 0.07038885 -0.019511994 -0.23366484 -0.018617127 0.009341029 -0.015030754 -0.054089773 -0.07416598 -0.041430026 0.019761866 -0.019290872 -0.14416587 -0.1072359 -0.045219183 0.002867294 -0.18636101 0.011314883 -0.12001471 -0.07028058 0.034323007 -0.099138215 -0.00059603434 0.15838082 0.06709832 0.08494606 -0.07820808 0.018427046 0.044104658 -0.066116914 -0.17196988 -0.07798721 0.10662006 0.05856453 0.08663666 -0.02349656 -0.08695742 -0.16336332 0.17991966 -0.06454986 0.05146051 0.03873607 -0.105458654 -7.0767805e-05 0.15153946 0.11938678 -0.004937308 0.07053151 -0.06620762 -0.062408388 0.01783313 0.018853309 -0.24846247 0.06759439 -0.09074281 -0.0486475 0.12068493 0.13944316 -0.07127047 -0.031116363 0.016307011 -0.07236938 -0.24546792 -0.015937274 -0.01957831 -0.08813993 -0.14730413 -0.0612249 0.14772396 -0.015808769 0.0555901 -0.07583468 0.034961354 0.0753359 -0.092902906 0.12916574 -0.08611727 0.104780026 0.036568645 -0.11804423 0.021926373 0.19653119 0.13092214 0.060724333 0.14344862 -0.06225497 0.2720116 -0.1625508 -0.020894373 0.07857645 0.10517883 0.040198583 -0.0069258837 -0.09819824 0.065159105 -0.11662995 -0.007106722 0.13323756 0.29060373 0.00084144657
31 -0.053800784 -0.07401253 0.2264845 -0.16918853 -0.098841615 -0.0135551095 0.098634765 0.02407349 0.23408808 0.10377135 -0.045811713 0.03127402 0.09844957 -0.045545787 -0.003974778 -0.10869394 0.07944555 -0.100286536 -0.05546391 -0.022198312 -0.104132205 0.06692601 -0.020495197 -0.13418767 -0.23901704 0.022406252 0.027313786 -0.13568637 0.030410517 0.044595983 -0.019049812 -0.30198103 0.009596523 0.0026133 0.011402465 -0.012747344 -0.123327136 -0.053749822 0.012332696 -0.03507693 -0.14016744 -0.13059047 -0.08308639 0.010986418 -0.14022963 0.0141986245 -0.111916535 -0.05660109 0.042881243 -0.13458385 0.05607098 0.15693891 0.09091107 0.073804446 -0.078832895 -0.023385447 0.027256776 -0.08726419 -0.19821173 -0.09957504 0.0925203 0.0764007 0.08796215 -0.049917538 -0.10757978 -0.13669433 0.15534936 -0.043338276 0.03936381 0.019516844 -0.10352446 0.0048681838 0.1817496 0.1610753 -0.015744228 0.045191564 -0.047893964 -0.041798726 -0.006383251 -0.027206874 -0.21865346 0.077205256 -0.084167905 0.018980581 0.11613834 0.11582436 -0.059153404 -0.022765774 0.0050336947 -0.07759583 -0.23684831 -0.027204016 0.017884253 -0.087879874 -0.13960628 -0.0310823 0.12824439 -0.0020342956 0.07716271 -0.04218201 0.0388606 0.08657069 -0.097343825 0.11937915 -0.101602934 0.117372155 0.047987357 -0.12630138 0.033289004 0.22715545 0.13340956 0.06516004 0.124764435 -0.0219657 0.29742104 -0.17782314 -0.04152649 0.09617043 0.098137006 0.045588896 -0.01818498 -0.0997732 0.060162436 -0.07592122 0.0037863902 0.12491745 0.29860535 -0.016533317
25 -0.062194068 -0.07990224 0.24314012 -0.15987594 -0.10395694 -0.005825448 0.08889354 0.016127741 0.24685706 0.103546865 -0.06616188 0.028337223 0.09338459 -0.057385866 0.005869633 -0.11995782 0.08665355 -0.10949003 -0.057100806 -0.020255353 -0.11106989 0.08049863 -0.018369865 -0.14222845 -0.23481996 0.01754046 0.035092026 -0.14072387 0.025344575 0.037197374 -0.013332986 -0.31831023 0.017029883 0.005324659 0.011408607 -0.0028073934 -0.14019309 -0.061521757 0.0042944346 -0.035665136 -0.15149486 -0.13480723 -0.0875361 0.0052998452 -0.12940112 0.009597806 -0.11233008 -0.049587928 0.041168403 -0.14122358 0.06704607 0.1598084 0.09550627 0.06760138 -0.08103745 -0.028330036 0.023443937 -0.09323555 -0.19893059 -0.09857217 0.082287565 0.07998417 0.09122087 -0.06638248 -0.112259105 -0.13484398 0.14631905 -0.036730655 0.04350411 0.013985727 -0.103232846 0.0007363606 0.19506663 0.17237622 -0.015698887 0.04859586 -0.043261267 -0.034752976 -0.01103157 -0.028280992 -0.21594098 0.07737569 -0.07988158 0.03537767 0.12610322 0.1018555 -0.05663135 -0.023918323 -0.002372019 -0.077340774 -0.23768613 -0.039206102 0.019900402 -0.092690066 -0.1332938 -0.023433296 0.119896084 0.009931054 0.082519054 -0.033339903 0.043813717 0.09015997 -0.10510406 0.12243109 -0.10598215 0.121225625 0.048520155 -0.12750427 0.030180015 0.23913504 0.13250744 0.06980758 0.122618064 -0.0146645615 0.30646834 -0.18410881 -0.044333592 0.099898264 0.09398128 0.048373483 -0.012807116 -0.106546015 0.057872437 -0.07178548 0.009573513 0.12891081 0.30310592 -0.023297217
20 -0.03707742 -0.051472772 0.21776329 -0.20636666 -0.12972103 -0.039367545 0.14574653 0.035729304 0.20355962 0.09410415 0.004303304 0.0073486995 0.1228962 -0.020490348 -0.002299055 -0.072750665 0.051180396 -0.07239788 -0.07755779 -0.019223966 -0.12515052 0.021911599 -0.00410004 -0.13764709 -0.22337496 0.0412701 -0.0013739066 -0.13106588 0.05935025 0.06581045 -0.017985672 -0.2427015 -0.017469184 0.010028672 -0.013266451 -0.055155747 -0.07578667 -0.04513474 0.01818544 -0.02567505 -0.14450426 -0.11002704 -0.044693332 0.00029287743 -0.19053388 0.013433294 -0.115973905 -0.06895931 0.038255084 -0.10439699 0.0063867886 0.16097139 0.06776654 0.08168754 -0.0838994 0.012603889 0.04228314 -0.06495617 -0.17781152 -0.08570554 0.10483252 0.056316435 0.09008103 -0.024187358 -0.09239974 -0.16069007 0.17446208 -0.06171744 0.052420612 0.031801436 -0.10319426 0.0042226575 0.15180098 0.11881368 -0.009001593 0.068751395 -0.06542182 -0.06458904 0.012724173 0.021146644 -0.2496471 0.06555701 -0.08836252 -0.05224927 0.12032508 0.13993908 -0.06744995 -0.029966384 0.013215338 -0.06638908 -0.24364182 -0.0205672 -0.016425509 -0.08562275 -0.1515737 -0.059745394 0.15090406 -0.015466098 0.06234788 -0.081517264 0.029445669 0.08086383 -0.09649817 0.12894279 -0.08052733 0.10902772 0.04442158 -0.11714203 0.027519744 0.19215353 0.1294818 0.06018835 0.13876855 -0.06388128 0.27051538 -0.1602415 -0.02612141 0.08433203 0.10944626 0.038934242 -0.00038249278 -0.09973394 0.07291785 -0.11225838 -0.0047393986 0.13287093 0.28774306 0.0054938677
5 0.015047339 -0.015046327 0.19154695 -0.2790539 -0.188109 -0.102714 0.2574794 0.06008513 0.14356607 0.09893294 0.09090431 -0.03574159 0.15761346 0.01837835 -0.005636277 -0.0058345217 -0.008837294 -0.011726941 -0.12518941 -0.0023284093 -0.1538323 -0.06391978 0.028289778 -0.12786168 -0.21091813 0.08828764 -0.067229964 -0.12340128 0.1113502 0.10194475 -0.02790727 -0.12763703 -0.06977399 0.01736988 -0.06770301 -0.12658787 0.021393292 -0.042304803 0.024415348 -0.0017410632 -0.16242893 -0.07702957 0.03146735 -0.013956368 -0.27161813 0.011128866 -0.12499793 -0.09453173 0.026772624 -0.040648904 -0.09653885 0.18372583 0.035161566 0.09550763 -0.096779056 0.08960983 0.060338896 -0.038568594 -0.14159629 -0.044558123 0.11957397 0.008213932 0.09295017 0.0074171857 -0.048122987 -0.19597384 0.21695296 -0.0973364 0.077463076 0.06541926 -0.08121006 -0.011347591 0.09200746 0.024512019 0.008399589 0.1226281 -0.11069173 -0.101593025 0.05276116 0.09913899 -0.30069456 0.044601873 -0.09346913 -0.17421858 0.13492982 0.18202198 -0.09337793 -0.028155766 0.010542821 -0.05145304 -0.24977908 -0.0030278927 -0.086467706 -0.092404135 -0.17731066 -0.10403855 0.19582526 -0.043915212 0.031443126 -0.16394657 0.002953169 0.062257748 -0.082397774 0.17277002 -0.050146535 0.09059039 0.03077595 -0.09632557 0.015268846 0.12470156 0.11977615 0.052091695 0.17341487 -0.1447065 0.21564831 -0.13395245 0.007374226 0.05898309 0.12195051 0.024873914 0.029346036 -0.1046788 0.090640165 -0.18193151 -0.030074598 0.16702877 0.26097664 0.040827043
11 0.0025049802 -0.027705668 0.21103273 -0.26917136 -0.18045178 -0.093898565 0.23166908 0.050215907 0.17392322 0.10393823 0.06256027 -0.024714395 0.15163095 0.002129063 -0.0021454801 -0.033238187 0.01609661 -0.033414792 -0.115793064 -0.0023550398 -0.15195434 -0.031681474 0.020375 -0.14250721 -0.22567381 0.07174145 -0.041352265 -0.13706395 0.09853861 0.08945443 -0.026175689 -0.18041606 -0.059333965 0.016547572 -0.044195272 -0.11118596 -0.0060546244 -0.04826255 0.02004595 -0.009898014 -0.16864735 -0.09423247 0.012629926 -0.004032726 -0.2579034 0.019142091 -0.12378081 -0.09099976 0.03323922 -0.05542688 -0.06563109 0.18371186 0.048060663 0.09674389 -0.098204195 0.06614349 0.051268153 -0.04521893 -0.16004515 -0.06395241 0.12015485 0.020839997 0.0915647 -0.0028689143 -0.06407558 -0.19076706 0.21210273 -0.08969859 0.07220483 0.055320106 -0.09179449 -0.008226929 0.118354 0.05325153 0.0067369984 0.107971914 -0.10208556 -0.09247218 0.03967869 0.07291629 -0.2922732 0.05656059 -0.08910451 -0.14082806 0.13392016 0.1750589 -0.0892752 -0.022179455 0.010531948 -0.05761385 -0.2568483 -0.008704937 -0.06699174 -0.0989228 -0.17471094 -0.08714408 0.19129767 -0.02906042 0.040681846 -0.14191695 0.010229793 0.07076591 -0.08585158 0.16813967 -0.05784139 0.10038376 0.03764954 -0.10508619 0.020913914 0.14779483 0.13085422 0.055355527 0.16257231 -0.118949205 0.23283169 -0.14873569 0.002090869 0.065662265 0.12128725 0.030310355 0.023308368 -0.11312968 0.09009884 -0.16710551 -0.02411739 0.16246727 0.27541545 0.028126951
26 -0.070765026 -0.07983687 0.23867774 -0.15189788 -0.09289776 -0.004872667 0.07306341 0.011026492 0.248666 0.10351154 -0.079271965 0.028681098 0.085418716 -0.05894118 0.0037970787 -0.12236909 0.08828189 -0.12175737 -0.046032164 -0.015870428 -0.10424129 0.09124289 -0.020491024 -0.1419039 -0.23686649 0.008172975 0.04435289 -0.1431682 0.016966995 0.029515844 -0.017257098 -0.33242226 0.015646296 0.004941917 0.015477336 -2.2825785e-05 -0.14642908 -0.064175725 0.003353408 -0.04746203 -0.14699909 -0.13210768 -0.0978705 0.015182832 -0.12562428 0.007808855 -0.11293239 -0.04778382 0.047770772 -0.14771488 0.07666822 0.14989096 0.09383327 0.07001347 -0.07667941 -0.041294333 0.015451605 -0.09517982 -0.2013472 -0.10624908 0.07739663 0.086456224 0.08694055 -0.07119792 -0.11117771 -0.12337089 0.14301376 -0.032500405 0.042491887 0.0147394445 -0.105523854 -0.0009830523 0.20073889 0.18418215 -0.02107066 0.03744686 -0.03310271 -0.03324049 -0.021124385 -0.038780328 -0.21399587 0.080987915 -0.0754667 0.04987752 0.121499866 0.09611007 -0.0565155 -0.018680783 -0.0019130503 -0.078501806 -0.22960512 -0.042159468 0.031894814 -0.08792112 -0.13549313 -0.024132337 0.116840795 0.012621184 0.08262042 -0.025630364 0.045308564 0.093200885 -0.097873956 0.120316006 -0.10879816 0.11848401 0.044635538 -0.12754248 0.03545329 0.23523356 0.1328079 0.068110615 0.11001333 -0.0024880879 0.30688974 -0.18589614 -0.04494571 0.103532806 0.088381045 0.04977709 -0.0152331805 -0.10250779 0.057914626 -0.06405837 0.013469403 0.121751204 0.29653195 -0.026064472
29 -0.052542567 -0.06414409 0.21859644 -0.15698956 -0.098669745 -0.014475131 0.09078155 0.017913176 0.21984117 0.09582021 -0.050954357 0.025024962 0.090310425 -0.048161987 -0.0040416745 -0.10102758 0.073799506 -0.09664808 -0.055115983 -0.016618188 -0.10823112 0.061767112 -0.015467795 -0.13135475 -0.22454138 0.015493737 0.030083476 -0.12907608 0.030346323 0.040086377 -0.0166596 -0.28797793 0.004048385 0.0026372436 0.01094013 -0.01716897 -0.1156002 -0.053059295 0.00925763 -0.03480269 -0.14336683 -0.12242415 -0.07894776 0.0025353846 -0.13738184 0.011771154 -0.11330014 -0.052535377 0.042170264 -0.12790531 0.0512716 0.14817822 0.08673245 0.07033191 -0.0730913 -0.020399863 0.02996696 -0.08467266 -0.18810749 -0.08988279 0.087032676 0.07335343 0.08347324 -0.051304825 -0.10172289 -0.1311075 0.14576732 -0.04424507 0.04409994 0.015618537 -0.10131547 -0.0016822484 0.17765051 0.15318683 -0.016759776 0.050579436 -0.042390514 -0.03582759 -0.010832783 -0.02351196 -0.21050952 0.06984169 -0.0773549 0.016596274 0.11247995 0.10263644 -0.053759467 -0.019055963 0.0017659897 -0.075582005 -0.2255369 -0.030570079 0.009564075 -0.087340415 -0.13120554 -0.03465628 0.11522865 0.0050981143 0.06919896 -0.03477654 0.0356495 0.08534023 -0.09418501 0.111425884 -0.095640644 0.11329172 0.041398793 -0.11555998 0.028543822 0.21457162 0.12205274 0.059001423 0.1161667 -0.018864341 0.28496015 -0.17122751 -0.04147871 0.09407576 0.09045468 0.0480188 -0.01141526 -0.100968204 0.053456314 -0.072382264 0.0046838666 0.122054 0.28467658 -0.01971633
19 -0.05939675 -0.07957782 0.21678056 -0.13631627 -0.084316276 0.0007640249 0.06825217 0.01742519 0.23483275 0.09197018 -0.06900758 0.031013027 0.084684856 -0.057311315 0.0049473257 -0.11770374 0.08498696 -0.106802486 -0.043397643 -0.017299566 -0.09344856 0.09093567 -0.025486657 -0.13447459 -0.22690701 0.008324304 0.04302252 -0.1352076 0.016061459 0.02852788 -0.012871743 -0.3152543 0.021177262 -0.0017278371 0.02073879 0.0049208514 -0.14115985 -0.06102244 0.011605944 -0.03890373 -0.1302055 -0.1218972 -0.09320733 0.0060099615 -0.10785677 0.017427115 -0.10314318 -0.043069623 0.039730158 -0.13605604 0.07192723 0.13986126 0.08668169 0.05880541 -0.07068677 -0.03304413 0.017833939 -0.082733214 -0.19115703 -0.099103905 0.07315241 0.081114136 0.0768251 -0.06383587 -0.101830184 -0.11076508 0.12967938 -0.028170342 0.033475623 0.0051811 -0.09605455 -0.0014301279 0.1791159 0.16302925 -0.013623568 0.031326532 -0.030902695 -0.030127542 -0.021034677 -0.037187554 -0.18658765 0.08124235 -0.066797934 0.04437924 0.11064401 0.09017976 -0.052653614 -0.021353079 0.00058945944 -0.06971029 -0.20872284 -0.03438738 0.027964314 -0.08183593 -0.11499836 -0.018469468 0.10278908 0.0074818796 0.07671481 -0.02335626 0.043035634 0.08097884 -0.09659558 0.10160197 -0.10145771 0.1082165 0.045059778 -0.113070145 0.033198677 0.21584673 0.1182574 0.065505184 0.10297285 0.00044044963 0.28018984 -0.16642672 -0.042305946 0.096340925 0.083958864 0.044632312 -0.017818436 -0.0954874 0.05366957 -0.05474103 0.0074422196 0.109327614 0.27298343 -0.02241742
22 -0.018924292 -0.03680728 0.21221864 -0.25362244 -0.15746601 -0.06801632 0.2095318 0.04463856 0.1808569 0.1010536 0.05292391 -0.0060167685 0.14802206 -0.0025481146 -0.012682367 -0.040591247 0.023617005 -0.04067522 -0.09809656 -0.013328901 -0.14490522 -0.020063989 0.010701299 -0.1334584 -0.22063854 0.07064405 -0.029716365 -0.12971103 0.09368311 0.09272157 -0.019207697 -0.17826657 -0.048810493 0.01117549 -0.03321623 -0.097878635 -0.024951577 -0.03938454 0.021285689 -0.008296718 -0.14958513 -0.10002251 -0.006676829 -0.0099311685 -0.24152943 0.014308962 -0.12168534 -0.08218965 0.037602738 -0.07081782 -0.049522642 0.1788527 0.051184785 0.10013472 -0.0920169 0.053165883 0.05586231 -0.054767065 -0.16047502 -0.068210475 0.12523316 0.032424018 0.09336151 -0.0011465116 -0.07939126 -0.19381574 0.20385906 -0.078532584 0.06358515 0.052355602 -0.09918915 0.0058814106 0.13293839 0.074229926 -0.0037951802 0.10056886 -0.09192448 -0.08526315 0.033864044 0.05545567 -0.2797135 0.061920602 -0.10005621 -0.113673635 0.12959026 0.17250164 -0.078179196 -0.03075682 0.019728323 -0.06522576 -0.25747913 -0.0076148403 -0.052012723 -0.09548763 -0.16870826 -0.0818676 0.18216605 -0.035751283 0.050795376 -0.120337844 0.020993706 0.07055646 -0.091629095 0.14398284 -0.07172715 0.09923799 0.038596608 -0.11259731 0.022686595 0.1678551 0.12872107 0.062105834 0.16322978 -0.106609546 0.25756186 -0.14933045 -0.011612893 0.06722481 0.122403346 0.044087313 0.004722371 -0.10612078 0.078723446 -0.15364224 -0.01682998 0.15077811 0.2848492 0.019178098
16 -0.053763557 -0.06821836 0.22534148 -0.16615431 -0.09879823 -0.014918748 0.089876086 0.022971386 0.22596464 0.09652143 -0.048512544 0.02749433 0.10143431 -0.046076793 -0.0012714642 -0.106045246 0.07539156 -0.10220395 -0.055398125 -0.018316623 -0.10970316 0.071156636 -0.015227311 -0.13306272 -0.23572236 0.016520385 0.030237373 -0.14010385 0.028185213 0.040660687 -0.018807469 -0.29969898 0.008278069 0.0012748645 0.012354984 -0.017012447 -0.12389507 -0.055153344 0.012830081 -0.033351883 -0.1453788 -0.12699589 -0.07739211 0.011163666 -0.14020863 0.013081512 -0.11665775 -0.05517301 0.04327426 -0.13409725 0.05056376 0.14911847 0.089521945 0.07492527 -0.08066201 -0.021205822 0.023013832 -0.08551216 -0.19497608 -0.09769518 0.08711902 0.07811039 0.08179247 -0.051876336 -0.10643725 -0.1308076 0.14778897 -0.04151207 0.038502254 0.021531826 -0.10694064 -0.0024695431 0.18040988 0.15874945 -0.015584401 0.045404665 -0.040456686 -0.03931681 -0.00987824 -0.025169851 -0.20888104 0.07620428 -0.0808383 0.0146929985 0.11848107 0.111050874 -0.057149477 -0.02153591 0.003620044 -0.07106346 -0.22859336 -0.027671242 0.014311153 -0.079992905 -0.13148683 -0.031000797 0.124105595 -0.0021650475 0.075060226 -0.041790746 0.037704855 0.08112031 -0.099171184 0.11452075 -0.091641806 0.10816466 0.0444501 -0.11823261 0.031179262 0.21530914 0.12707606 0.059258346 0.11748659 -0.023964625 0.28497526 -0.17305379 -0.038937543 0.0881058 0.09278884 0.040469747 -0.0132731395 -0.100260675 0.057781227 -0.07747438 0.0058262427 0.114881456 0.28367883 -0.019506423
21 -0.05588219 -0.07787539 0.2218852 -0.15214 -0.09622285 -0.009717991 0.08501295 0.022626672 0.2261864 0.0995519 -0.05452609 0.028144114 0.08966155 -0.052504126 0.0046108733 -0.112434976 0.083410084 -0.105059266 -0.051793538 -0.021646831 -0.09937382 0.075559616 -0.01908053 -0.13429724 -0.2302754 0.00992236 0.04022756 -0.13638146 0.0239779 0.033463906 -0.011720681 -0.3075008 0.01126201 0.0054792147 0.014295191 -0.0098514175 -0.1325448 -0.05623043 0.0096088145 -0.03778922 -0.13861594 -0.12144604 -0.08951142 0.012083694 -0.12440046 0.0138907535 -0.106864795 -0.052399654 0.042530302 -0.13912736 0.068085656 0.14623533 0.08590895 0.064164296 -0.07687579 -0.02585037 0.02146794 -0.079107925 -0.1886091 -0.09518415 0.08395231 0.077676095 0.08256686 -0.060030125 -0.10105921 -0.12280165 0.13706988 -0.031600334 0.03433291 0.014263468 -0.10573623 -8.761724e-05 0.18040283 0.16663417 -0.0116759 0.03859884 -0.039866023 -0.037715346 -0.017724091 -0.032424998 -0.20040129 0.079618424 -0.07781097 0.034940317 0.114434786 0.096677534 -0.052641448 -0.018780464 0.0008622941 -0.0734559 -0.21516751 -0.025700148 0.019640839 -0.077045836 -0.12547696 -0.021754103 0.11611381 0.003617861 0.074659556 -0.028598182 0.03920248 0.07993069 -0.096412234 0.10940982 -0.09851692 0.109383374 0.04123679 -0.12066035 0.029854584 0.21566823 0.1213303 0.06271512 0.10799791 -0.012809911 0.27941847 -0.17018269 -0.036063306 0.08980086 0.09280725 0.039374534 -0.011180426 -0.093867645 0.057023484 -0.066992804 0.0035073236 0.11147534 0.28078243 -0.024999352
27 -0.06424787 -0.081826255 0.23459737 -0.14923729 -0.09331646 -0.0013359577 0.07317606 0.016428698 0.25140017 0.10228478 -0.06954851 0.037046928 0.08773007 -0.06076548 0.0049863467 -0.12224146 0.088251024 -0.11912547 -0.044268854 -0.018704826 -0.10814487 0.09199339 -0.023761697 -0.14576784 -0.23894115 0.008227658 0.040772874 -0.14088275 0.022811152 0.035119455 -0.013111854 -0.33269006 0.018279418 0.0010587181 0.01913243 0.00046188384 -0.14915723 -0.063206516 0.010113818 -0.045370437 -0.14782995 -0.13266174 -0.09327899 0.011537617 -0.12156933 0.016738806 -0.11520253 -0.04991394 0.04654245 -0.15120079 0.07673662 0.14884342 0.09518228 0.069044106 -0.07523287 -0.035720956 0.021487305 -0.093587585 -0.20708631 -0.107832916 0.084749915 0.08506872 0.08487017 -0.06798136 -0.11577862 -0.12407727 0.14523475 -0.031925675 0.038533248 0.012426121 -0.10586047 0.0018436088 0.19019343 0.17486535 -0.013707684 0.04180573 -0.03450677 -0.03097966 -0.016095525 -0.040128198 -0.21006654 0.08379358 -0.07541796 0.045200717 0.12229684 0.09825767 -0.05106899 -0.01959545 -0.0008477423 -0.07842511 -0.23169637 -0.032785878 0.024992226 -0.088559434 -0.13141614 -0.019454392 0.116803065 0.007849012 0.0838094 -0.026644852 0.048048455 0.09208678 -0.10573419 0.1102608 -0.10633066 0.1211333 0.049601685 -0.1293212 0.034145072 0.23684783 0.12748648 0.066659056 0.11146977 -0.0016448782 0.30683473 -0.18467392 -0.04361175 0.103791274 0.09733056 0.045004968 -0.018075354 -0.0999475 0.057798784 -0.06191175 0.009698252 0.11999645 0.30108342 -0.028058203
15 -0.063903876 -0.083043635 0.2347562 -0.15107787 -0.09031667 0.0026964766 0.074807994 0.016201919 0.24415651 0.101275966 -0.07378481 0.03405289 0.090932354 -0.055773005 0.0036705944 -0.12420438 0.088340536 -0.11796233 -0.05089163 -0.023870295 -0.10309683 0.08829854 -0.025814557 -0.13918664 -0.23864207 0.012748931 0.04332024 -0.1458729 0.021028023 0.03300169 -0.008125635 -0.3295099 0.019262046 0.0002503339 0.019862361 -0.00048987195 -0.14647326 -0.057965398 0.008624293 -0.040344186 -0.14268419 -0.13204138 -0.09916849 0.011866228 -0.12258899 0.013183417 -0.115470216 -0.051158924 0.04467706 -0.14483385 0.07753338 0.1508637 0.09862325 0.0697348 -0.078651115 -0.03978591 0.017834986 -0.08813921 -0.20095746 -0.10297489 0.07721951 0.08787889 0.0843509 -0.0662128 -0.106878564 -0.12580149 0.14243825 -0.03604942 0.03686775 0.015322924 -0.105416365 0.0024380786 0.19496343 0.17776573 -0.016937802 0.038355988 -0.033642553 -0.03474602 -0.021391217 -0.035490375 -0.2109952 0.08323049 -0.07868275 0.046471953 0.11557541 0.101146065 -0.055506762 -0.017089842 0.001378474 -0.08081664 -0.23224242 -0.03221797 0.024093958 -0.08355436 -0.1332092 -0.021687133 0.11920662 0.004654864 0.07944115 -0.023733443 0.048600633 0.09123771 -0.102754116 0.11430585 -0.10804254 0.1155942 0.0503666 -0.12767716 0.033365056 0.23732889 0.13312323 0.067069486 0.11865069 -0.002209579 0.3050405 -0.18181911 -0.04081185 0.10085978 0.093247585 0.04408633 -0.015460287 -0.10161256 0.05408619 -0.06816733 0.011207972 0.120458364 0.3034989 -0.026211279
10 -0.044804916 -0.059500653 0.21557388 -0.16772124 -0.103578225 -0.015941866 0.104485154 0.019609349 0.21543738 0.09577803 -0.03852962 0.018842041 0.102944896 -0.039680064 0.0013819549 -0.09135211 0.06889091 -0.09310399 -0.06106444 -0.0143480785 -0.11238285 0.05621305 -0.016279465 -0.13244551 -0.2240133 0.024712406 0.016664762 -0.12997063 0.035922937 0.04424844 -0.018025775 -0.2712225 0.0010553387 0.0038333193 0.0059968503 -0.02167163 -0.10719477 -0.0551382 0.013861141 -0.034039766 -0.14421289 -0.11585917 -0.070966884 0.0030313688 -0.15107216 0.012365486 -0.111306034 -0.05454155 0.03936098 -0.12391212 0.040400308 0.15444782 0.0794332 0.07064211 -0.07530038 -0.010114263 0.034396198 -0.079482205 -0.18818057 -0.08811364 0.08720251 0.066855915 0.090096265 -0.04422975 -0.09723241 -0.14199793 0.15586701 -0.046911437 0.04315653 0.024700603 -0.101736695 -0.00086963153 0.17062014 0.14754102 -0.008730155 0.058257613 -0.04934283 -0.042902175 -0.0034005921 -0.01194357 -0.22272272 0.071436144 -0.08260275 0.0007254508 0.11411078 0.11522739 -0.055911034 -0.02721422 0.0022674806 -0.07569996 -0.22661504 -0.026552603 0.0027562724 -0.08558774 -0.13551834 -0.03597513 0.1228315 -0.00053796504 0.07269025 -0.05199087 0.041346762 0.08312407 -0.09678486 0.11701753 -0.09178649 0.10917812 0.042095102 -0.119022615 0.030135201 0.20844632 0.12000413 0.06100799 0.12346837 -0.034148376 0.28041688 -0.16621879 -0.037451267 0.086737536 0.0936598 0.042031474 -0.00985485 -0.100649446 0.057061423 -0.08412177 0.00061298907 0.12674683 0.2872732 -0.010406569
23 -0.046944745 -0.068714485 0.22443748 -0.17411321 -0.10629934 -0.025520701 0.10871284 0.027700473 0.22465795 0.0980744 -0.036841895 0.021323523 0.10779418 -0.04406368 -0.002800363 -0.102936745 0.075409904 -0.096445 -0.063301526 -0.017076261 -0.10991093 0.064277805 -0.014223314 -0.1438041 -0.24074998 0.019953119 0.027817355 -0.14443733 0.03615019 0.04286088 -0.016202543 -0.29789138 0.00015648728 0.0024411252 0.008680424 -0.020553557 -0.112274885 -0.059168294 0.009468458 -0.035012748 -0.14366783 -0.12242309 -0.07167986 0.0065578963 -0.15179187 0.017893678 -0.11560684 -0.060522884 0.0375247 -0.1249207 0.046224754 0.152054 0.08056665 0.07256162 -0.07648042 -0.014898796 0.026863592 -0.07841429 -0.19165502 -0.096592166 0.08777194 0.0736564 0.08427979 -0.04840786 -0.10029949 -0.13731751 0.1512777 -0.04217219 0.04464427 0.01791429 -0.09876549 -0.0018922249 0.17509122 0.14943723 -0.010421735 0.05346785 -0.05015339 -0.047425553 -0.004363447 -0.017930415 -0.2244882 0.08046756 -0.077959046 0.0018921427 0.115741484 0.114027694 -0.06357424 -0.02065815 -0.0011945212 -0.07354809 -0.2305172 -0.024443822 0.007959128 -0.08265085 -0.1356518 -0.031233085 0.13116792 -0.003129811 0.07205508 -0.046355415 0.0394867 0.085268304 -0.09809616 0.12161669 -0.088649854 0.11344266 0.04025509 -0.11622985 0.031855896 0.2047682 0.12863706 0.058855355 0.11873114 -0.029342253 0.2802204 -0.1671748 -0.0350652 0.08822974 0.09896057 0.038483243 -0.011892709 -0.10039774 0.06157594 -0.08631755 0.0021429753 0.12240388 0.28334904 -0.009011274
17 0.0056133354 -0.019250145 0.20412795 -0.26694515 -0.17783076 -0.09461002 0.23396236 0.05587278 0.16170412 0.09760887 0.07228497 -0.030139549 0.14702372 0.008138288 -0.003775287 -0.022621244 0.003911929 -0.028956676 -0.11418367 -0.0034358741 -0.14955373 -0.0362162 0.022162165 -0.13592333 -0.2178066 0.0768109 -0.048849 -0.13455035 0.10812673 0.08847034 -0.024510244 -0.15614952 -0.06124119 0.016090805 -0.053787444 -0.1124123 0.0046328213 -0.046314336 0.022865545 -0.008557978 -0.16080989 -0.08099557 0.019148873 -0.011523215 -0.25888452 0.012515585 -0.117034234 -0.095211655 0.029014107 -0.04846012 -0.07497048 0.1730011 0.045581147 0.090684 -0.09758412 0.066181675 0.05839663 -0.039249167 -0.14558412 -0.053891808 0.11293756 0.018700171 0.092953086 -0.0036902952 -0.060866933 -0.19086441 0.20659344 -0.08219921 0.06583755 0.054558836 -0.08836545 -0.0063601527 0.100786485 0.043548416 0.008855505 0.10841043 -0.09604644 -0.094855666 0.036448985 0.080717824 -0.28094393 0.04692787 -0.08503304 -0.1482573 0.123219155 0.16848531 -0.08900284 -0.023038326 0.009226179 -0.05588001 -0.24377759 -0.0075093424 -0.0730447 -0.09208352 -0.17236581 -0.084824555 0.18887167 -0.037316494 0.041618653 -0.14707133 0.0124609135 0.061307166 -0.08370009 0.16082968 -0.05355243 0.08963164 0.03269748 -0.099029556 0.017434629 0.13562645 0.12166634 0.058470186 0.16068551 -0.12556724 0.22112004 -0.14063284 0.0064103324 0.06270021 0.11648011 0.024030698 0.02133053 -0.10880354 0.09058099 -0.16567355 -0.02603342 0.15477718 0.26180854 0.026856892
18 -0.026588375 -0.042442575 0.22181694 -0.25071007 -0.1539919 -0.06311222 0.19071351 0.04778377 0.19723828 0.10199329 0.03915635 0.0016261467 0.14647391 -0.005632645 -0.010159747 -0.05525356 0.03635891 -0.05292879 -0.09470479 -0.019025309 -0.13665791 -0.0023255628 0.0073922332 -0.14005737 -0.23330614 0.067760706 -0.022667289 -0.13188547 0.082384445 0.08360206 -0.01776957 -0.20993558 -0.039010108 0.013017854 -0.027841693 -0.08004831 -0.04615688 -0.044047266 0.024229705 -0.016267177 -0.15156369 -0.10420338 -0.017343245 -0.005057994 -0.22740054 0.017677687 -0.12356483 -0.08015827 0.036812253 -0.07974709 -0.02732365 0.17570966 0.062049825 0.09610317 -0.08476963 0.03709705 0.052358963 -0.052833002 -0.16946298 -0.071775004 0.120232835 0.040607408 0.08910933 -0.006128589 -0.078319296 -0.18224998 0.19735907 -0.07254385 0.060867622 0.044203904 -0.10592514 0.006231828 0.13922618 0.087086275 -0.000301657 0.085523516 -0.08607657 -0.07858835 0.028190643 0.042572368 -0.27564654 0.05948412 -0.093263194 -0.09494443 0.12477092 0.16227666 -0.077071115 -0.03173027 0.018425519 -0.068489686 -0.25386804 -0.0075638667 -0.03981251 -0.09089296 -0.16586141 -0.077015676 0.1680634 -0.033242255 0.04868115 -0.111320674 0.025844725 0.07866142 -0.092014335 0.13779087 -0.07179 0.106571175 0.03596092 -0.118857205 0.02465792 0.17667156 0.13155922 0.060860954 0.15334721 -0.09271205 0.2625427 -0.15146826 -0.015462153 0.076066695 0.115220435 0.04489448 0.0008710578 -0.10475905 0.0778504 -0.143079 -0.013737276 0.14345038 0.29004282 0.016604101
13 -0.021949366 -0.047701403 0.20470467 -0.22324942 -0.1343097 -0.05131546 0.17180803 0.036981113 0.18309675 0.0954736 0.02608232 0.009539111 0.13425693 -0.00720323 -0.0079972865 -0.048921157 0.03251792 -0.046599027 -0.08456104 -0.014139076 -0.124858476 -0.0011974954 0.0035402412 -0.1257761 -0.21867429 0.06140515 -0.016766598 -0.117376074 0.07076111 0.07695161 -0.022377845 -0.1982948 -0.030148847 0.007934561 -0.02387329 -0.068099245 -0.042276528 -0.039720617 0.015022369 -0.01039969 -0.138671 -0.10473093 -0.02447754 -0.0053702663 -0.20477639 0.01592881 -0.11219008 -0.07472035 0.03470828 -0.08338685 -0.020170908 0.16317622 0.05658881 0.07953533 -0.08145917 0.035427272 0.04934597 -0.058911897 -0.16090237 -0.07170702 0.11350638 0.04011321 0.09014065 -0.009087965 -0.07689689 -0.16590184 0.18175173 -0.06655919 0.053195458 0.04288499 -0.093477 0.005685116 0.13795136 0.092087984 -0.008772242 0.0774727 -0.07368966 -0.06986865 0.023087732 0.03289133 -0.2564679 0.06178874 -0.09229907 -0.08466169 0.12174477 0.1473067 -0.066163555 -0.03183411 0.017107565 -0.067982145 -0.23910551 -0.017032422 -0.033756357 -0.089916654 -0.15911317 -0.073746294 0.15494278 -0.029757038 0.05210578 -0.09182729 0.024656279 0.073352285 -0.08998859 0.13666107 -0.0731289 0.104966186 0.034258995 -0.11575859 0.018226774 0.17639251 0.12887166 0.056562364 0.14236157 -0.08174772 0.2522069 -0.14423673 -0.01924187 0.07315404 0.11277269 0.045429155 -0.002674681 -0.09622065 0.06711137 -0.12443695 -0.013721178 0.1358721 0.2744041 0.013422254
12 -0.022623956 -0.04271324 0.21444844 -0.22596881 -0.14212458 -0.05441492 0.17537795 0.040225577 0.19142237 0.1032973 0.017898299 0.0018763471 0.13215514 -0.0102701485 -0.010204412 -0.059069272 0.0400561 -0.05984388 -0.085709736 -0.0114975525 -0.13180889 0.007699838 0.0028595473 -0.12986019 -0.21863785 0.05254317 -0.010840832 -0.13172878 0.075739734 0.073733404 -0.018512268 -0.21315005 -0.029279135 0.008192937 -0.018970499 -0.07310323 -0.04817678 -0.045752626 0.021214781 -0.021572748 -0.14669247 -0.09807368 -0.02368054 0.0009040449 -0.20535438 0.016145142 -0.11736601 -0.07721536 0.03610916 -0.08193855 -0.017368434 0.15919825 0.0577437 0.08355042 -0.08638604 0.031527314 0.04772385 -0.054131836 -0.16106634 -0.068044685 0.1081333 0.0417048 0.0848924 -0.022486402 -0.07618501 -0.16607995 0.18201059 -0.064080305 0.05558843 0.042302225 -0.10153807 -0.00093474076 0.14100097 0.09343826 -0.005133175 0.08368684 -0.073737755 -0.070762366 0.015986992 0.036537208 -0.25622386 0.05945726 -0.0886812 -0.0786058 0.120207846 0.14773425 -0.069834754 -0.023711137 0.009834735 -0.066491015 -0.24252188 -0.012577108 -0.029711785 -0.08975759 -0.14973862 -0.06244244 0.15698858 -0.016926773 0.054072656 -0.09953566 0.026554916 0.07115053 -0.092615716 0.13165388 -0.06964284 0.100236565 0.035779983 -0.1081194 0.020815376 0.17802826 0.12170438 0.057994988 0.1385775 -0.07736824 0.2496671 -0.15101174 -0.01764037 0.074257046 0.108380444 0.03497393 0.005858298 -0.09750398 0.07476165 -0.12424206 -0.009642604 0.13304256 0.27604765 0.007068335
